-4.576140642166137695e-01
6.230599805712699890e-02
-2.801178097724914551e-01
-1.506378501653671265e-01
-2.602527737617492676e-01
-2.146739065647125244e-01
1.957430094480514526e-01
7.678476721048355103e-02
2.908022701740264893e-01
-4.671536758542060852e-02
6.793473660945892334e-02
2.416677772998809814e-01
2.896604537963867188e-01
1.315940171480178833e-01
1.498071253299713135e-01
5.040764212608337402e-01
-9.092999249696731567e-02
2.832540273666381836e-01
1.544027179479598999e-01
-1.183724477887153625e-01
-3.535577952861785889e-01
2.404713481664657593e-01
7.307048141956329346e-02
8.705517649650573730e-02
2.958572208881378174e-01
4.609724581241607666e-01
-3.394751846790313721e-01
3.220086097717285156e-01
-3.316128551959991455e-01
-7.785955071449279785e-02
-3.525497391819953918e-02
-2.041251361370086670e-01
1.924034208059310913e-02
-2.243193238973617554e-01
-3.014042973518371582e-03
4.825242757797241211e-01
1.003920007497072220e-02
-2.769131660461425781e-01
-9.330694377422332764e-02
7.162605877965688705e-03
-2.570232748985290527e-01
-4.461110010743141174e-02
-3.533796072006225586e-01
6.140481233596801758e-01
1.169735565781593323e-01
-8.322715293616056442e-04
1.848453134298324585e-01
-1.144471019506454468e-01
-5.265634655952453613e-01
-3.858134746551513672e-01
-2.507281303405761719e-01
1.397938877344131470e-01
2.076303809881210327e-01
3.179048299789428711e-01
-2.751464843750000000e-01
-2.768523395061492920e-01
2.536987513303756714e-02
3.115855753421783447e-01
5.596590787172317505e-02
1.442065834999084473e-02
2.614296972751617432e-03
-5.505926907062530518e-02
-2.993933558464050293e-01
-3.465843200683593750e-02
